net
{
	rcenginegenerator1317510038576835557L = "edu.ucla.belief.inference.RCSettings@48360ef0";
}

node sesgo
{
	states = ("p=10" "p=20" "p=30" "p=40" "p=50" "p=60" "p=70" "p=80" "p=90" );
	position = (474 -347);
	diagnosistype = "AUXILIARY";
	ismapvariable = "false";
	label = "sesgo";
	DSLxEXTRA_DEFINITIONxDIAGNOSIS_TYPE = "AUXILIARY";
	excludepolicy = "include whole CPT";
}
node fila5
{
	states = ("columna1" "columna2" "columna3" "columna4" "columna5" "columna6" "columna7" "columna8" "columna9" );
	position = (198 -548);
	diagnosistype = "AUXILIARY";
	ismapvariable = "false";
	label = "fila5";
	DSLxEXTRA_DEFINITIONxDIAGNOSIS_TYPE = "AUXILIARY";
	excludepolicy = "include whole CPT";
}
node lanzador
{
	states = ("columna1" "columna2" "columna3" "columna4" "columna5" "columna6" "columna7" "columna8" "columna9" );
	position = (198 -49);
	diagnosistype = "AUXILIARY";
	ismapvariable = "false";
	label = "lanzador";
	DSLxEXTRA_DEFINITIONxDIAGNOSIS_TYPE = "AUXILIARY";
	excludepolicy = "include whole CPT";
}
node fila2
{
	states = ("columna1" "columna2" "columna3" "columna4" "columna5" "columna6" "columna7" "columna8" "columna9" );
	position = (198 -248);
	diagnosistype = "AUXILIARY";
	ismapvariable = "false";
	label = "fila2";
	DSLxEXTRA_DEFINITIONxDIAGNOSIS_TYPE = "AUXILIARY";
	excludepolicy = "include whole CPT";
}
node fila4
{
	states = ("columna1" "columna2" "columna3" "columna4" "columna5" "columna6" "columna7" "columna8" "columna9" );
	position = (198 -448);
	diagnosistype = "AUXILIARY";
	ismapvariable = "false";
	label = "fila4";
	DSLxEXTRA_DEFINITIONxDIAGNOSIS_TYPE = "AUXILIARY";
	excludepolicy = "include whole CPT";
}
node fila6
{
	states = ("columna1" "columna2" "columna3" "columna4" "columna5" "columna6" "columna7" "columna8" "columna9" );
	position = (198 -647);
	diagnosistype = "AUXILIARY";
	ismapvariable = "false";
	label = "fila6";
	DSLxEXTRA_DEFINITIONxDIAGNOSIS_TYPE = "AUXILIARY";
	excludepolicy = "include whole CPT";
}
node fila3
{
	states = ("columna1" "columna2" "columna3" "columna4" "columna5" "columna6" "columna7" "columna8" "columna9" );
	position = (198 -347);
	diagnosistype = "AUXILIARY";
	ismapvariable = "false";
	label = "fila3";
	DSLxEXTRA_DEFINITIONxDIAGNOSIS_TYPE = "AUXILIARY";
	excludepolicy = "include whole CPT";
}
node fila1
{
	states = ("columna1" "columna2" "columna3" "columna4" "columna5" "columna6" "columna7" "columna8" "columna9" );
	position = (198 -148);
	diagnosistype = "AUXILIARY";
	ismapvariable = "false";
	label = "fila1";
	DSLxEXTRA_DEFINITIONxDIAGNOSIS_TYPE = "AUXILIARY";
	excludepolicy = "include whole CPT";
}
potential ( sesgo | )
{
	data = (	0.1111111111111111	0.1111111111111111	0.1111111111111111	0.1111111111111111	0.1111111111111111	0.1111111111111111	0.1111111111111111	0.1111111111111111	0.1111111111111111	);
}
potential ( fila5 | fila4 sesgo )
{
	data = (((	1.0	0.0	0.0	0.0	0.0	0.0	0.0	0.0	0.0	)
		(	1.0	0.0	0.0	0.0	0.0	0.0	0.0	0.0	0.0	)
		(	1.0	0.0	0.0	0.0	0.0	0.0	0.0	0.0	0.0	)
		(	1.0	0.0	0.0	0.0	0.0	0.0	0.0	0.0	0.0	)
		(	1.0	0.0	0.0	0.0	0.0	0.0	0.0	0.0	0.0	)
		(	1.0	0.0	0.0	0.0	0.0	0.0	0.0	0.0	0.0	)
		(	1.0	0.0	0.0	0.0	0.0	0.0	0.0	0.0	0.0	)
		(	1.0	0.0	0.0	0.0	0.0	0.0	0.0	0.0	0.0	)
		(	1.0	0.0	0.0	0.0	0.0	0.0	0.0	0.0	0.0	))
		((	0.0	1.0	0.0	0.0	0.0	0.0	0.0	0.0	0.0	)
		(	0.0	1.0	0.0	0.0	0.0	0.0	0.0	0.0	0.0	)
		(	0.0	1.0	0.0	0.0	0.0	0.0	0.0	0.0	0.0	)
		(	0.0	1.0	0.0	0.0	0.0	0.0	0.0	0.0	0.0	)
		(	0.0	1.0	0.0	0.0	0.0	0.0	0.0	0.0	0.0	)
		(	0.0	1.0	0.0	0.0	0.0	0.0	0.0	0.0	0.0	)
		(	0.0	1.0	0.0	0.0	0.0	0.0	0.0	0.0	0.0	)
		(	0.0	1.0	0.0	0.0	0.0	0.0	0.0	0.0	0.0	)
		(	0.0	1.0	0.0	0.0	0.0	0.0	0.0	0.0	0.0	))
		((	0.0	0.9	0.0	0.1	0.0	0.0	0.0	0.0	0.0	)
		(	0.0	0.8	0.0	0.2	0.0	0.0	0.0	0.0	0.0	)
		(	0.0	0.7	0.0	0.3	0.0	0.0	0.0	0.0	0.0	)
		(	0.0	0.6	0.0	0.4	0.0	0.0	0.0	0.0	0.0	)
		(	0.0	0.5	0.0	0.5	0.0	0.0	0.0	0.0	0.0	)
		(	0.0	0.4	0.0	0.6	0.0	0.0	0.0	0.0	0.0	)
		(	0.0	0.3	0.0	0.7	0.0	0.0	0.0	0.0	0.0	)
		(	0.0	0.2	0.0	0.8	0.0	0.0	0.0	0.0	0.0	)
		(	0.0	0.1	0.0	0.9	0.0	0.0	0.0	0.0	0.0	))
		((	0.0	0.0	0.0	1.0	0.0	0.0	0.0	0.0	0.0	)
		(	0.0	0.0	0.0	1.0	0.0	0.0	0.0	0.0	0.0	)
		(	0.0	0.0	0.0	1.0	0.0	0.0	0.0	0.0	0.0	)
		(	0.0	0.0	0.0	1.0	0.0	0.0	0.0	0.0	0.0	)
		(	0.0	0.0	0.0	1.0	0.0	0.0	0.0	0.0	0.0	)
		(	0.0	0.0	0.0	1.0	0.0	0.0	0.0	0.0	0.0	)
		(	0.0	0.0	0.0	1.0	0.0	0.0	0.0	0.0	0.0	)
		(	0.0	0.0	0.0	1.0	0.0	0.0	0.0	0.0	0.0	)
		(	0.0	0.0	0.0	1.0	0.0	0.0	0.0	0.0	0.0	))
		((	0.0	0.0	0.0	0.9	0.0	0.1	0.0	0.0	0.0	)
		(	0.0	0.0	0.0	0.8	0.0	0.2	0.0	0.0	0.0	)
		(	0.0	0.0	0.0	0.7	0.0	0.3	0.0	0.0	0.0	)
		(	0.0	0.0	0.0	0.6	0.0	0.4	0.0	0.0	0.0	)
		(	0.0	0.0	0.0	0.5	0.0	0.5	0.0	0.0	0.0	)
		(	0.0	0.0	0.0	0.4	0.0	0.6	0.0	0.0	0.0	)
		(	0.0	0.0	0.0	0.3	0.0	0.7	0.0	0.0	0.0	)
		(	0.0	0.0	0.0	0.2	0.0	0.8	0.0	0.0	0.0	)
		(	0.0	0.0	0.0	0.1	0.0	0.9	0.0	0.0	0.0	))
		((	0.0	0.0	0.0	0.0	0.0	1.0	0.0	0.0	0.0	)
		(	0.0	0.0	0.0	0.0	0.0	1.0	0.0	0.0	0.0	)
		(	0.0	0.0	0.0	0.0	0.0	1.0	0.0	0.0	0.0	)
		(	0.0	0.0	0.0	0.0	0.0	1.0	0.0	0.0	0.0	)
		(	0.0	0.0	0.0	0.0	0.0	1.0	0.0	0.0	0.0	)
		(	0.0	0.0	0.0	0.0	0.0	1.0	0.0	0.0	0.0	)
		(	0.0	0.0	0.0	0.0	0.0	1.0	0.0	0.0	0.0	)
		(	0.0	0.0	0.0	0.0	0.0	1.0	0.0	0.0	0.0	)
		(	0.0	0.0	0.0	0.0	0.0	1.0	0.0	0.0	0.0	))
		((	0.0	0.0	0.0	0.0	0.0	0.9	0.0	0.1	0.0	)
		(	0.0	0.0	0.0	0.0	0.0	0.8	0.0	0.2	0.0	)
		(	0.0	0.0	0.0	0.0	0.0	0.7	0.0	0.3	0.0	)
		(	0.0	0.0	0.0	0.0	0.0	0.6	0.0	0.4	0.0	)
		(	0.0	0.0	0.0	0.0	0.0	0.5	0.0	0.5	0.0	)
		(	0.0	0.0	0.0	0.0	0.0	0.4	0.0	0.6	0.0	)
		(	0.0	0.0	0.0	0.0	0.0	0.3	0.0	0.7	0.0	)
		(	0.0	0.0	0.0	0.0	0.0	0.2	0.0	0.8	0.0	)
		(	0.0	0.0	0.0	0.0	0.0	0.1	0.0	0.9	0.0	))
		((	0.0	0.0	0.0	0.0	0.0	0.0	0.0	1.0	0.0	)
		(	0.0	0.0	0.0	0.0	0.0	0.0	0.0	1.0	0.0	)
		(	0.0	0.0	0.0	0.0	0.0	0.0	0.0	1.0	0.0	)
		(	0.0	0.0	0.0	0.0	0.0	0.0	0.0	1.0	0.0	)
		(	0.0	0.0	0.0	0.0	0.0	0.0	0.0	1.0	0.0	)
		(	0.0	0.0	0.0	0.0	0.0	0.0	0.0	1.0	0.0	)
		(	0.0	0.0	0.0	0.0	0.0	0.0	0.0	1.0	0.0	)
		(	0.0	0.0	0.0	0.0	0.0	0.0	0.0	1.0	0.0	)
		(	0.0	0.0	0.0	0.0	0.0	0.0	0.0	1.0	0.0	))
		((	0.0	0.0	0.0	0.0	0.0	0.0	0.0	0.0	1.0	)
		(	0.0	0.0	0.0	0.0	0.0	0.0	0.0	0.0	1.0	)
		(	0.0	0.0	0.0	0.0	0.0	0.0	0.0	0.0	1.0	)
		(	0.0	0.0	0.0	0.0	0.0	0.0	0.0	0.0	1.0	)
		(	0.0	0.0	0.0	0.0	0.0	0.0	0.0	0.0	1.0	)
		(	0.0	0.0	0.0	0.0	0.0	0.0	0.0	0.0	1.0	)
		(	0.0	0.0	0.0	0.0	0.0	0.0	0.0	0.0	1.0	)
		(	0.0	0.0	0.0	0.0	0.0	0.0	0.0	0.0	1.0	)
		(	0.0	0.0	0.0	0.0	0.0	0.0	0.0	0.0	1.0	)));
}
potential ( lanzador | )
{
	data = (	0.11111111111111113	0.11111111111111113	0.11111111111111113	0.11111111111111113	0.11111111111111113	0.11111111111111113	0.11111111111111113	0.11111111111111113	0.11111111111111113	);
}
potential ( fila2 | fila1 sesgo )
{
	data = (((	1.0	0.0	0.0	0.0	0.0	0.0	0.0	0.0	0.0	)
		(	1.0	0.0	0.0	0.0	0.0	0.0	0.0	0.0	0.0	)
		(	1.0	0.0	0.0	0.0	0.0	0.0	0.0	0.0	0.0	)
		(	1.0	0.0	0.0	0.0	0.0	0.0	0.0	0.0	0.0	)
		(	1.0	0.0	0.0	0.0	0.0	0.0	0.0	0.0	0.0	)
		(	1.0	0.0	0.0	0.0	0.0	0.0	0.0	0.0	0.0	)
		(	1.0	0.0	0.0	0.0	0.0	0.0	0.0	0.0	0.0	)
		(	1.0	0.0	0.0	0.0	0.0	0.0	0.0	0.0	0.0	)
		(	1.0	0.0	0.0	0.0	0.0	0.0	0.0	0.0	0.0	))
		((	0.9	0.0	0.1	0.0	0.0	0.0	0.0	0.0	0.0	)
		(	0.8	0.0	0.2	0.0	0.0	0.0	0.0	0.0	0.0	)
		(	0.7	0.0	0.3	0.0	0.0	0.0	0.0	0.0	0.0	)
		(	0.6	0.0	0.4	0.0	0.0	0.0	0.0	0.0	0.0	)
		(	0.5	0.0	0.5	0.0	0.0	0.0	0.0	0.0	0.0	)
		(	0.4	0.0	0.6	0.0	0.0	0.0	0.0	0.0	0.0	)
		(	0.3	0.0	0.7	0.0	0.0	0.0	0.0	0.0	0.0	)
		(	0.2	0.0	0.8	0.0	0.0	0.0	0.0	0.0	0.0	)
		(	0.1	0.0	0.9	0.0	0.0	0.0	0.0	0.0	0.0	))
		((	0.0	0.0	1.0	0.0	0.0	0.0	0.0	0.0	0.0	)
		(	0.0	0.0	1.0	0.0	0.0	0.0	0.0	0.0	0.0	)
		(	0.0	0.0	1.0	0.0	0.0	0.0	0.0	0.0	0.0	)
		(	0.0	0.0	1.0	0.0	0.0	0.0	0.0	0.0	0.0	)
		(	0.0	0.0	1.0	0.0	0.0	0.0	0.0	0.0	0.0	)
		(	0.0	0.0	1.0	0.0	0.0	0.0	0.0	0.0	0.0	)
		(	0.0	0.0	1.0	0.0	0.0	0.0	0.0	0.0	0.0	)
		(	0.0	0.0	1.0	0.0	0.0	0.0	0.0	0.0	0.0	)
		(	0.0	0.0	1.0	0.0	0.0	0.0	0.0	0.0	0.0	))
		((	0.0	0.0	0.9	0.0	0.1	0.0	0.0	0.0	0.0	)
		(	0.0	0.0	0.8	0.0	0.2	0.0	0.0	0.0	0.0	)
		(	0.0	0.0	0.7	0.0	0.3	0.0	0.0	0.0	0.0	)
		(	0.0	0.0	0.6	0.0	0.4	0.0	0.0	0.0	0.0	)
		(	0.0	0.0	0.5	0.0	0.5	0.0	0.0	0.0	0.0	)
		(	0.0	0.0	0.4	0.0	0.6	0.0	0.0	0.0	0.0	)
		(	0.0	0.0	0.3	0.0	0.7	0.0	0.0	0.0	0.0	)
		(	0.0	0.0	0.2	0.0	0.8	0.0	0.0	0.0	0.0	)
		(	0.0	0.0	0.1	0.0	0.9	0.0	0.0	0.0	0.0	))
		((	0.0	0.0	0.0	0.0	1.0	0.0	0.0	0.0	0.0	)
		(	0.0	0.0	0.0	0.0	1.0	0.0	0.0	0.0	0.0	)
		(	0.0	0.0	0.0	0.0	1.0	0.0	0.0	0.0	0.0	)
		(	0.0	0.0	0.0	0.0	1.0	0.0	0.0	0.0	0.0	)
		(	0.0	0.0	0.0	0.0	1.0	0.0	0.0	0.0	0.0	)
		(	0.0	0.0	0.0	0.0	1.0	0.0	0.0	0.0	0.0	)
		(	0.0	0.0	0.0	0.0	1.0	0.0	0.0	0.0	0.0	)
		(	0.0	0.0	0.0	0.0	1.0	0.0	0.0	0.0	0.0	)
		(	0.0	0.0	0.0	0.0	1.0	0.0	0.0	0.0	0.0	))
		((	0.0	0.0	0.0	0.0	0.9	0.0	0.1	0.0	0.0	)
		(	0.0	0.0	0.0	0.0	0.8	0.0	0.2	0.0	0.0	)
		(	0.0	0.0	0.0	0.0	0.7	0.0	0.3	0.0	0.0	)
		(	0.0	0.0	0.0	0.0	0.6	0.0	0.4	0.0	0.0	)
		(	0.0	0.0	0.0	0.0	0.5	0.0	0.5	0.0	0.0	)
		(	0.0	0.0	0.0	0.0	0.4	0.0	0.6	0.0	0.0	)
		(	0.0	0.0	0.0	0.0	0.3	0.0	0.7	0.0	0.0	)
		(	0.0	0.0	0.0	0.0	0.2	0.0	0.8	0.0	0.0	)
		(	0.0	0.0	0.0	0.0	0.1	0.0	0.9	0.0	0.0	))
		((	0.0	0.0	0.0	0.0	0.0	0.0	1.0	0.0	0.0	)
		(	0.0	0.0	0.0	0.0	0.0	0.0	1.0	0.0	0.0	)
		(	0.0	0.0	0.0	0.0	0.0	0.0	1.0	0.0	0.0	)
		(	0.0	0.0	0.0	0.0	0.0	0.0	1.0	0.0	0.0	)
		(	0.0	0.0	0.0	0.0	0.0	0.0	1.0	0.0	0.0	)
		(	0.0	0.0	0.0	0.0	0.0	0.0	1.0	0.0	0.0	)
		(	0.0	0.0	0.0	0.0	0.0	0.0	1.0	0.0	0.0	)
		(	0.0	0.0	0.0	0.0	0.0	0.0	1.0	0.0	0.0	)
		(	0.0	0.0	0.0	0.0	0.0	0.0	1.0	0.0	0.0	))
		((	0.0	0.0	0.0	0.0	0.0	0.0	0.9	0.0	0.1	)
		(	0.0	0.0	0.0	0.0	0.0	0.0	0.8	0.0	0.2	)
		(	0.0	0.0	0.0	0.0	0.0	0.0	0.7	0.0	0.3	)
		(	0.0	0.0	0.0	0.0	0.0	0.0	0.6	0.0	0.4	)
		(	0.0	0.0	0.0	0.0	0.0	0.0	0.5	0.0	0.5	)
		(	0.0	0.0	0.0	0.0	0.0	0.0	0.4	0.0	0.6	)
		(	0.0	0.0	0.0	0.0	0.0	0.0	0.3	0.0	0.7	)
		(	0.0	0.0	0.0	0.0	0.0	0.0	0.2	0.0	0.8	)
		(	0.0	0.0	0.0	0.0	0.0	0.0	0.1	0.0	0.9	))
		((	0.0	0.0	0.0	0.0	0.0	0.0	0.0	0.0	1.0	)
		(	0.0	0.0	0.0	0.0	0.0	0.0	0.0	0.0	1.0	)
		(	0.0	0.0	0.0	0.0	0.0	0.0	0.0	0.0	1.0	)
		(	0.0	0.0	0.0	0.0	0.0	0.0	0.0	0.0	1.0	)
		(	0.0	0.0	0.0	0.0	0.0	0.0	0.0	0.0	1.0	)
		(	0.0	0.0	0.0	0.0	0.0	0.0	0.0	0.0	1.0	)
		(	0.0	0.0	0.0	0.0	0.0	0.0	0.0	0.0	1.0	)
		(	0.0	0.0	0.0	0.0	0.0	0.0	0.0	0.0	1.0	)
		(	0.0	0.0	0.0	0.0	0.0	0.0	0.0	0.0	1.0	)));
}
potential ( fila4 | fila3 sesgo )
{
	data = (((	1.0	0.0	0.0	0.0	0.0	0.0	0.0	0.0	0.0	)
		(	1.0	0.0	0.0	0.0	0.0	0.0	0.0	0.0	0.0	)
		(	1.0	0.0	0.0	0.0	0.0	0.0	0.0	0.0	0.0	)
		(	1.0	0.0	0.0	0.0	0.0	0.0	0.0	0.0	0.0	)
		(	1.0	0.0	0.0	0.0	0.0	0.0	0.0	0.0	0.0	)
		(	1.0	0.0	0.0	0.0	0.0	0.0	0.0	0.0	0.0	)
		(	1.0	0.0	0.0	0.0	0.0	0.0	0.0	0.0	0.0	)
		(	1.0	0.0	0.0	0.0	0.0	0.0	0.0	0.0	0.0	)
		(	1.0	0.0	0.0	0.0	0.0	0.0	0.0	0.0	0.0	))
		((	0.9	0.0	0.1	0.0	0.0	0.0	0.0	0.0	0.0	)
		(	0.8	0.0	0.2	0.0	0.0	0.0	0.0	0.0	0.0	)
		(	0.7	0.0	0.3	0.0	0.0	0.0	0.0	0.0	0.0	)
		(	0.6	0.0	0.4	0.0	0.0	0.0	0.0	0.0	0.0	)
		(	0.5	0.0	0.5	0.0	0.0	0.0	0.0	0.0	0.0	)
		(	0.4	0.0	0.6	0.0	0.0	0.0	0.0	0.0	0.0	)
		(	0.3	0.0	0.7	0.0	0.0	0.0	0.0	0.0	0.0	)
		(	0.2	0.0	0.8	0.0	0.0	0.0	0.0	0.0	0.0	)
		(	0.1	0.0	0.9	0.0	0.0	0.0	0.0	0.0	0.0	))
		((	0.0	0.0	1.0	0.0	0.0	0.0	0.0	0.0	0.0	)
		(	0.0	0.0	1.0	0.0	0.0	0.0	0.0	0.0	0.0	)
		(	0.0	0.0	1.0	0.0	0.0	0.0	0.0	0.0	0.0	)
		(	0.0	0.0	1.0	0.0	0.0	0.0	0.0	0.0	0.0	)
		(	0.0	0.0	1.0	0.0	0.0	0.0	0.0	0.0	0.0	)
		(	0.0	0.0	1.0	0.0	0.0	0.0	0.0	0.0	0.0	)
		(	0.0	0.0	1.0	0.0	0.0	0.0	0.0	0.0	0.0	)
		(	0.0	0.0	1.0	0.0	0.0	0.0	0.0	0.0	0.0	)
		(	0.0	0.0	1.0	0.0	0.0	0.0	0.0	0.0	0.0	))
		((	0.0	0.0	0.9	0.0	0.1	0.0	0.0	0.0	0.0	)
		(	0.0	0.0	0.8	0.0	0.2	0.0	0.0	0.0	0.0	)
		(	0.0	0.0	0.7	0.0	0.3	0.0	0.0	0.0	0.0	)
		(	0.0	0.0	0.6	0.0	0.4	0.0	0.0	0.0	0.0	)
		(	0.0	0.0	0.5	0.0	0.5	0.0	0.0	0.0	0.0	)
		(	0.0	0.0	0.4	0.0	0.6	0.0	0.0	0.0	0.0	)
		(	0.0	0.0	0.3	0.0	0.7	0.0	0.0	0.0	0.0	)
		(	0.0	0.0	0.2	0.0	0.8	0.0	0.0	0.0	0.0	)
		(	0.0	0.0	0.1	0.0	0.9	0.0	0.0	0.0	0.0	))
		((	0.0	0.0	0.0	0.0	1.0	0.0	0.0	0.0	0.0	)
		(	0.0	0.0	0.0	0.0	1.0	0.0	0.0	0.0	0.0	)
		(	0.0	0.0	0.0	0.0	1.0	0.0	0.0	0.0	0.0	)
		(	0.0	0.0	0.0	0.0	1.0	0.0	0.0	0.0	0.0	)
		(	0.0	0.0	0.0	0.0	1.0	0.0	0.0	0.0	0.0	)
		(	0.0	0.0	0.0	0.0	1.0	0.0	0.0	0.0	0.0	)
		(	0.0	0.0	0.0	0.0	1.0	0.0	0.0	0.0	0.0	)
		(	0.0	0.0	0.0	0.0	1.0	0.0	0.0	0.0	0.0	)
		(	0.0	0.0	0.0	0.0	1.0	0.0	0.0	0.0	0.0	))
		((	0.0	0.0	0.0	0.0	0.9	0.0	0.1	0.0	0.0	)
		(	0.0	0.0	0.0	0.0	0.8	0.0	0.2	0.0	0.0	)
		(	0.0	0.0	0.0	0.0	0.7	0.0	0.3	0.0	0.0	)
		(	0.0	0.0	0.0	0.0	0.6	0.0	0.4	0.0	0.0	)
		(	0.0	0.0	0.0	0.0	0.5	0.0	0.5	0.0	0.0	)
		(	0.0	0.0	0.0	0.0	0.4	0.0	0.6	0.0	0.0	)
		(	0.0	0.0	0.0	0.0	0.3	0.0	0.7	0.0	0.0	)
		(	0.0	0.0	0.0	0.0	0.2	0.0	0.8	0.0	0.0	)
		(	0.0	0.0	0.0	0.0	0.1	0.0	0.9	0.0	0.0	))
		((	0.0	0.0	0.0	0.0	0.0	0.0	1.0	0.0	0.0	)
		(	0.0	0.0	0.0	0.0	0.0	0.0	1.0	0.0	0.0	)
		(	0.0	0.0	0.0	0.0	0.0	0.0	1.0	0.0	0.0	)
		(	0.0	0.0	0.0	0.0	0.0	0.0	1.0	0.0	0.0	)
		(	0.0	0.0	0.0	0.0	0.0	0.0	1.0	0.0	0.0	)
		(	0.0	0.0	0.0	0.0	0.0	0.0	1.0	0.0	0.0	)
		(	0.0	0.0	0.0	0.0	0.0	0.0	1.0	0.0	0.0	)
		(	0.0	0.0	0.0	0.0	0.0	0.0	1.0	0.0	0.0	)
		(	0.0	0.0	0.0	0.0	0.0	0.0	1.0	0.0	0.0	))
		((	0.0	0.0	0.0	0.0	0.0	0.0	0.9	0.0	0.1	)
		(	0.0	0.0	0.0	0.0	0.0	0.0	0.8	0.0	0.2	)
		(	0.0	0.0	0.0	0.0	0.0	0.0	0.7	0.0	0.3	)
		(	0.0	0.0	0.0	0.0	0.0	0.0	0.6	0.0	0.4	)
		(	0.0	0.0	0.0	0.0	0.0	0.0	0.5	0.0	0.5	)
		(	0.0	0.0	0.0	0.0	0.0	0.0	0.4	0.0	0.6	)
		(	0.0	0.0	0.0	0.0	0.0	0.0	0.3	0.0	0.7	)
		(	0.0	0.0	0.0	0.0	0.0	0.0	0.2	0.0	0.8	)
		(	0.0	0.0	0.0	0.0	0.0	0.0	0.1	0.0	0.9	))
		((	0.0	0.0	0.0	0.0	0.0	0.0	0.0	0.0	1.0	)
		(	0.0	0.0	0.0	0.0	0.0	0.0	0.0	0.0	1.0	)
		(	0.0	0.0	0.0	0.0	0.0	0.0	0.0	0.0	1.0	)
		(	0.0	0.0	0.0	0.0	0.0	0.0	0.0	0.0	1.0	)
		(	0.0	0.0	0.0	0.0	0.0	0.0	0.0	0.0	1.0	)
		(	0.0	0.0	0.0	0.0	0.0	0.0	0.0	0.0	1.0	)
		(	0.0	0.0	0.0	0.0	0.0	0.0	0.0	0.0	1.0	)
		(	0.0	0.0	0.0	0.0	0.0	0.0	0.0	0.0	1.0	)
		(	0.0	0.0	0.0	0.0	0.0	0.0	0.0	0.0	1.0	)));
}
potential ( fila6 | fila5 sesgo )
{
	data = (((	1.0	0.0	0.0	0.0	0.0	0.0	0.0	0.0	0.0	)
		(	1.0	0.0	0.0	0.0	0.0	0.0	0.0	0.0	0.0	)
		(	1.0	0.0	0.0	0.0	0.0	0.0	0.0	0.0	0.0	)
		(	1.0	0.0	0.0	0.0	0.0	0.0	0.0	0.0	0.0	)
		(	1.0	0.0	0.0	0.0	0.0	0.0	0.0	0.0	0.0	)
		(	1.0	0.0	0.0	0.0	0.0	0.0	0.0	0.0	0.0	)
		(	1.0	0.0	0.0	0.0	0.0	0.0	0.0	0.0	0.0	)
		(	1.0	0.0	0.0	0.0	0.0	0.0	0.0	0.0	0.0	)
		(	1.0	0.0	0.0	0.0	0.0	0.0	0.0	0.0	0.0	))
		((	0.9	0.0	0.1	0.0	0.0	0.0	0.0	0.0	0.0	)
		(	0.8	0.0	0.2	0.0	0.0	0.0	0.0	0.0	0.0	)
		(	0.7	0.0	0.3	0.0	0.0	0.0	0.0	0.0	0.0	)
		(	0.6	0.0	0.4	0.0	0.0	0.0	0.0	0.0	0.0	)
		(	0.5	0.0	0.5	0.0	0.0	0.0	0.0	0.0	0.0	)
		(	0.4	0.0	0.6	0.0	0.0	0.0	0.0	0.0	0.0	)
		(	0.3	0.0	0.7	0.0	0.0	0.0	0.0	0.0	0.0	)
		(	0.2	0.0	0.8	0.0	0.0	0.0	0.0	0.0	0.0	)
		(	0.1	0.0	0.9	0.0	0.0	0.0	0.0	0.0	0.0	))
		((	0.0	0.0	1.0	0.0	0.0	0.0	0.0	0.0	0.0	)
		(	0.0	0.0	1.0	0.0	0.0	0.0	0.0	0.0	0.0	)
		(	0.0	0.0	1.0	0.0	0.0	0.0	0.0	0.0	0.0	)
		(	0.0	0.0	1.0	0.0	0.0	0.0	0.0	0.0	0.0	)
		(	0.0	0.0	1.0	0.0	0.0	0.0	0.0	0.0	0.0	)
		(	0.0	0.0	1.0	0.0	0.0	0.0	0.0	0.0	0.0	)
		(	0.0	0.0	1.0	0.0	0.0	0.0	0.0	0.0	0.0	)
		(	0.0	0.0	1.0	0.0	0.0	0.0	0.0	0.0	0.0	)
		(	0.0	0.0	1.0	0.0	0.0	0.0	0.0	0.0	0.0	))
		((	0.0	0.0	0.9	0.0	0.1	0.0	0.0	0.0	0.0	)
		(	0.0	0.0	0.8	0.0	0.2	0.0	0.0	0.0	0.0	)
		(	0.0	0.0	0.7	0.0	0.3	0.0	0.0	0.0	0.0	)
		(	0.0	0.0	0.6	0.0	0.4	0.0	0.0	0.0	0.0	)
		(	0.0	0.0	0.5	0.0	0.5	0.0	0.0	0.0	0.0	)
		(	0.0	0.0	0.4	0.0	0.6	0.0	0.0	0.0	0.0	)
		(	0.0	0.0	0.3	0.0	0.7	0.0	0.0	0.0	0.0	)
		(	0.0	0.0	0.2	0.0	0.8	0.0	0.0	0.0	0.0	)
		(	0.0	0.0	0.1	0.0	0.9	0.0	0.0	0.0	0.0	))
		((	0.0	0.0	0.0	0.0	1.0	0.0	0.0	0.0	0.0	)
		(	0.0	0.0	0.0	0.0	1.0	0.0	0.0	0.0	0.0	)
		(	0.0	0.0	0.0	0.0	1.0	0.0	0.0	0.0	0.0	)
		(	0.0	0.0	0.0	0.0	1.0	0.0	0.0	0.0	0.0	)
		(	0.0	0.0	0.0	0.0	1.0	0.0	0.0	0.0	0.0	)
		(	0.0	0.0	0.0	0.0	1.0	0.0	0.0	0.0	0.0	)
		(	0.0	0.0	0.0	0.0	1.0	0.0	0.0	0.0	0.0	)
		(	0.0	0.0	0.0	0.0	1.0	0.0	0.0	0.0	0.0	)
		(	0.0	0.0	0.0	0.0	1.0	0.0	0.0	0.0	0.0	))
		((	0.0	0.0	0.0	0.0	0.9	0.0	0.1	0.0	0.0	)
		(	0.0	0.0	0.0	0.0	0.8	0.0	0.2	0.0	0.0	)
		(	0.0	0.0	0.0	0.0	0.7	0.0	0.3	0.0	0.0	)
		(	0.0	0.0	0.0	0.0	0.6	0.0	0.4	0.0	0.0	)
		(	0.0	0.0	0.0	0.0	0.5	0.0	0.5	0.0	0.0	)
		(	0.0	0.0	0.0	0.0	0.4	0.0	0.6	0.0	0.0	)
		(	0.0	0.0	0.0	0.0	0.3	0.0	0.7	0.0	0.0	)
		(	0.0	0.0	0.0	0.0	0.2	0.0	0.8	0.0	0.0	)
		(	0.0	0.0	0.0	0.0	0.1	0.0	0.9	0.0	0.0	))
		((	0.0	0.0	0.0	0.0	0.0	0.0	1.0	0.0	0.0	)
		(	0.0	0.0	0.0	0.0	0.0	0.0	1.0	0.0	0.0	)
		(	0.0	0.0	0.0	0.0	0.0	0.0	1.0	0.0	0.0	)
		(	0.0	0.0	0.0	0.0	0.0	0.0	1.0	0.0	0.0	)
		(	0.0	0.0	0.0	0.0	0.0	0.0	1.0	0.0	0.0	)
		(	0.0	0.0	0.0	0.0	0.0	0.0	1.0	0.0	0.0	)
		(	0.0	0.0	0.0	0.0	0.0	0.0	1.0	0.0	0.0	)
		(	0.0	0.0	0.0	0.0	0.0	0.0	1.0	0.0	0.0	)
		(	0.0	0.0	0.0	0.0	0.0	0.0	1.0	0.0	0.0	))
		((	0.0	0.0	0.0	0.0	0.0	0.0	0.9	0.0	0.1	)
		(	0.0	0.0	0.0	0.0	0.0	0.0	0.8	0.0	0.2	)
		(	0.0	0.0	0.0	0.0	0.0	0.0	0.7	0.0	0.3	)
		(	0.0	0.0	0.0	0.0	0.0	0.0	0.6	0.0	0.4	)
		(	0.0	0.0	0.0	0.0	0.0	0.0	0.5	0.0	0.5	)
		(	0.0	0.0	0.0	0.0	0.0	0.0	0.4	0.0	0.6	)
		(	0.0	0.0	0.0	0.0	0.0	0.0	0.3	0.0	0.7	)
		(	0.0	0.0	0.0	0.0	0.0	0.0	0.2	0.0	0.8	)
		(	0.0	0.0	0.0	0.0	0.0	0.0	0.1	0.0	0.9	))
		((	0.0	0.0	0.0	0.0	0.0	0.0	0.0	0.0	1.0	)
		(	0.0	0.0	0.0	0.0	0.0	0.0	0.0	0.0	1.0	)
		(	0.0	0.0	0.0	0.0	0.0	0.0	0.0	0.0	1.0	)
		(	0.0	0.0	0.0	0.0	0.0	0.0	0.0	0.0	1.0	)
		(	0.0	0.0	0.0	0.0	0.0	0.0	0.0	0.0	1.0	)
		(	0.0	0.0	0.0	0.0	0.0	0.0	0.0	0.0	1.0	)
		(	0.0	0.0	0.0	0.0	0.0	0.0	0.0	0.0	1.0	)
		(	0.0	0.0	0.0	0.0	0.0	0.0	0.0	0.0	1.0	)
		(	0.0	0.0	0.0	0.0	0.0	0.0	0.0	0.0	1.0	)));
}
potential ( fila3 | fila2 sesgo )
{
	data = (((	1.0	0.0	0.0	0.0	0.0	0.0	0.0	0.0	0.0	)
		(	1.0	0.0	0.0	0.0	0.0	0.0	0.0	0.0	0.0	)
		(	1.0	0.0	0.0	0.0	0.0	0.0	0.0	0.0	0.0	)
		(	1.0	0.0	0.0	0.0	0.0	0.0	0.0	0.0	0.0	)
		(	1.0	0.0	0.0	0.0	0.0	0.0	0.0	0.0	0.0	)
		(	1.0	0.0	0.0	0.0	0.0	0.0	0.0	0.0	0.0	)
		(	1.0	0.0	0.0	0.0	0.0	0.0	0.0	0.0	0.0	)
		(	1.0	0.0	0.0	0.0	0.0	0.0	0.0	0.0	0.0	)
		(	1.0	0.0	0.0	0.0	0.0	0.0	0.0	0.0	0.0	))
		((	0.0	1.0	0.0	0.0	0.0	0.0	0.0	0.0	0.0	)
		(	0.0	1.0	0.0	0.0	0.0	0.0	0.0	0.0	0.0	)
		(	0.0	1.0	0.0	0.0	0.0	0.0	0.0	0.0	0.0	)
		(	0.0	1.0	0.0	0.0	0.0	0.0	0.0	0.0	0.0	)
		(	0.0	1.0	0.0	0.0	0.0	0.0	0.0	0.0	0.0	)
		(	0.0	1.0	0.0	0.0	0.0	0.0	0.0	0.0	0.0	)
		(	0.0	1.0	0.0	0.0	0.0	0.0	0.0	0.0	0.0	)
		(	0.0	1.0	0.0	0.0	0.0	0.0	0.0	0.0	0.0	)
		(	0.0	1.0	0.0	0.0	0.0	0.0	0.0	0.0	0.0	))
		((	0.0	0.9	0.0	0.1	0.0	0.0	0.0	0.0	0.0	)
		(	0.0	0.8	0.0	0.2	0.0	0.0	0.0	0.0	0.0	)
		(	0.0	0.7	0.0	0.3	0.0	0.0	0.0	0.0	0.0	)
		(	0.0	0.6	0.0	0.4	0.0	0.0	0.0	0.0	0.0	)
		(	0.0	0.5	0.0	0.5	0.0	0.0	0.0	0.0	0.0	)
		(	0.0	0.4	0.0	0.6	0.0	0.0	0.0	0.0	0.0	)
		(	0.0	0.3	0.0	0.7	0.0	0.0	0.0	0.0	0.0	)
		(	0.0	0.2	0.0	0.8	0.0	0.0	0.0	0.0	0.0	)
		(	0.0	0.1	0.0	0.9	0.0	0.0	0.0	0.0	0.0	))
		((	0.0	0.0	0.0	1.0	0.0	0.0	0.0	0.0	0.0	)
		(	0.0	0.0	0.0	1.0	0.0	0.0	0.0	0.0	0.0	)
		(	0.0	0.0	0.0	1.0	0.0	0.0	0.0	0.0	0.0	)
		(	0.0	0.0	0.0	1.0	0.0	0.0	0.0	0.0	0.0	)
		(	0.0	0.0	0.0	1.0	0.0	0.0	0.0	0.0	0.0	)
		(	0.0	0.0	0.0	1.0	0.0	0.0	0.0	0.0	0.0	)
		(	0.0	0.0	0.0	1.0	0.0	0.0	0.0	0.0	0.0	)
		(	0.0	0.0	0.0	1.0	0.0	0.0	0.0	0.0	0.0	)
		(	0.0	0.0	0.0	1.0	0.0	0.0	0.0	0.0	0.0	))
		((	0.0	0.0	0.0	0.9	0.0	0.1	0.0	0.0	0.0	)
		(	0.0	0.0	0.0	0.8	0.0	0.2	0.0	0.0	0.0	)
		(	0.0	0.0	0.0	0.7	0.0	0.3	0.0	0.0	0.0	)
		(	0.0	0.0	0.0	0.6	0.0	0.4	0.0	0.0	0.0	)
		(	0.0	0.0	0.0	0.5	0.0	0.5	0.0	0.0	0.0	)
		(	0.0	0.0	0.0	0.4	0.0	0.6	0.0	0.0	0.0	)
		(	0.0	0.0	0.0	0.3	0.0	0.7	0.0	0.0	0.0	)
		(	0.0	0.0	0.0	0.2	0.0	0.8	0.0	0.0	0.0	)
		(	0.0	0.0	0.0	0.1	0.0	0.9	0.0	0.0	0.0	))
		((	0.0	0.0	0.0	0.0	0.0	1.0	0.0	0.0	0.0	)
		(	0.0	0.0	0.0	0.0	0.0	1.0	0.0	0.0	0.0	)
		(	0.0	0.0	0.0	0.0	0.0	1.0	0.0	0.0	0.0	)
		(	0.0	0.0	0.0	0.0	0.0	1.0	0.0	0.0	0.0	)
		(	0.0	0.0	0.0	0.0	0.0	1.0	0.0	0.0	0.0	)
		(	0.0	0.0	0.0	0.0	0.0	1.0	0.0	0.0	0.0	)
		(	0.0	0.0	0.0	0.0	0.0	1.0	0.0	0.0	0.0	)
		(	0.0	0.0	0.0	0.0	0.0	1.0	0.0	0.0	0.0	)
		(	0.0	0.0	0.0	0.0	0.0	1.0	0.0	0.0	0.0	))
		((	0.0	0.0	0.0	0.0	0.0	0.9	0.0	0.1	0.0	)
		(	0.0	0.0	0.0	0.0	0.0	0.8	0.0	0.2	0.0	)
		(	0.0	0.0	0.0	0.0	0.0	0.7	0.0	0.3	0.0	)
		(	0.0	0.0	0.0	0.0	0.0	0.6	0.0	0.4	0.0	)
		(	0.0	0.0	0.0	0.0	0.0	0.5	0.0	0.5	0.0	)
		(	0.0	0.0	0.0	0.0	0.0	0.4	0.0	0.6	0.0	)
		(	0.0	0.0	0.0	0.0	0.0	0.3	0.0	0.7	0.0	)
		(	0.0	0.0	0.0	0.0	0.0	0.2	0.0	0.8	0.0	)
		(	0.0	0.0	0.0	0.0	0.0	0.1	0.0	0.9	0.0	))
		((	0.0	0.0	0.0	0.0	0.0	0.0	0.0	1.0	0.0	)
		(	0.0	0.0	0.0	0.0	0.0	0.0	0.0	1.0	0.0	)
		(	0.0	0.0	0.0	0.0	0.0	0.0	0.0	1.0	0.0	)
		(	0.0	0.0	0.0	0.0	0.0	0.0	0.0	1.0	0.0	)
		(	0.0	0.0	0.0	0.0	0.0	0.0	0.0	1.0	0.0	)
		(	0.0	0.0	0.0	0.0	0.0	0.0	0.0	1.0	0.0	)
		(	0.0	0.0	0.0	0.0	0.0	0.0	0.0	1.0	0.0	)
		(	0.0	0.0	0.0	0.0	0.0	0.0	0.0	1.0	0.0	)
		(	0.0	0.0	0.0	0.0	0.0	0.0	0.0	1.0	0.0	))
		((	0.0	0.0	0.0	0.0	0.0	0.0	0.0	0.0	1.0	)
		(	0.0	0.0	0.0	0.0	0.0	0.0	0.0	0.0	1.0	)
		(	0.0	0.0	0.0	0.0	0.0	0.0	0.0	0.0	1.0	)
		(	0.0	0.0	0.0	0.0	0.0	0.0	0.0	0.0	1.0	)
		(	0.0	0.0	0.0	0.0	0.0	0.0	0.0	0.0	1.0	)
		(	0.0	0.0	0.0	0.0	0.0	0.0	0.0	0.0	1.0	)
		(	0.0	0.0	0.0	0.0	0.0	0.0	0.0	0.0	1.0	)
		(	0.0	0.0	0.0	0.0	0.0	0.0	0.0	0.0	1.0	)
		(	0.0	0.0	0.0	0.0	0.0	0.0	0.0	0.0	1.0	)));
}
potential ( fila1 | lanzador sesgo )
{
	data = (((	1.0	0.0	0.0	0.0	0.0	0.0	0.0	0.0	0.0	)
		(	1.0	0.0	0.0	0.0	0.0	0.0	0.0	0.0	0.0	)
		(	1.0	0.0	0.0	0.0	0.0	0.0	0.0	0.0	0.0	)
		(	1.0	0.0	0.0	0.0	0.0	0.0	0.0	0.0	0.0	)
		(	1.0	0.0	0.0	0.0	0.0	0.0	0.0	0.0	0.0	)
		(	1.0	0.0	0.0	0.0	0.0	0.0	0.0	0.0	0.0	)
		(	1.0	0.0	0.0	0.0	0.0	0.0	0.0	0.0	0.0	)
		(	1.0	0.0	0.0	0.0	0.0	0.0	0.0	0.0	0.0	)
		(	1.0	0.0	0.0	0.0	0.0	0.0	0.0	0.0	0.0	))
		((	0.0	1.0	0.0	0.0	0.0	0.0	0.0	0.0	0.0	)
		(	0.0	1.0	0.0	0.0	0.0	0.0	0.0	0.0	0.0	)
		(	0.0	1.0	0.0	0.0	0.0	0.0	0.0	0.0	0.0	)
		(	0.0	1.0	0.0	0.0	0.0	0.0	0.0	0.0	0.0	)
		(	0.0	1.0	0.0	0.0	0.0	0.0	0.0	0.0	0.0	)
		(	0.0	1.0	0.0	0.0	0.0	0.0	0.0	0.0	0.0	)
		(	0.0	1.0	0.0	0.0	0.0	0.0	0.0	0.0	0.0	)
		(	0.0	1.0	0.0	0.0	0.0	0.0	0.0	0.0	0.0	)
		(	0.0	1.0	0.0	0.0	0.0	0.0	0.0	0.0	0.0	))
		((	0.0	0.9	0.0	0.1	0.0	0.0	0.0	0.0	0.0	)
		(	0.0	0.8	0.0	0.2	0.0	0.0	0.0	0.0	0.0	)
		(	0.0	0.7	0.0	0.3	0.0	0.0	0.0	0.0	0.0	)
		(	0.0	0.6	0.0	0.4	0.0	0.0	0.0	0.0	0.0	)
		(	0.0	0.5	0.0	0.5	0.0	0.0	0.0	0.0	0.0	)
		(	0.0	0.4	0.0	0.6	0.0	0.0	0.0	0.0	0.0	)
		(	0.0	0.3	0.0	0.7	0.0	0.0	0.0	0.0	0.0	)
		(	0.0	0.2	0.0	0.8	0.0	0.0	0.0	0.0	0.0	)
		(	0.0	0.1	0.0	0.9	0.0	0.0	0.0	0.0	0.0	))
		((	0.0	0.0	0.0	1.0	0.0	0.0	0.0	0.0	0.0	)
		(	0.0	0.0	0.0	1.0	0.0	0.0	0.0	0.0	0.0	)
		(	0.0	0.0	0.0	1.0	0.0	0.0	0.0	0.0	0.0	)
		(	0.0	0.0	0.0	1.0	0.0	0.0	0.0	0.0	0.0	)
		(	0.0	0.0	0.0	1.0	0.0	0.0	0.0	0.0	0.0	)
		(	0.0	0.0	0.0	1.0	0.0	0.0	0.0	0.0	0.0	)
		(	0.0	0.0	0.0	1.0	0.0	0.0	0.0	0.0	0.0	)
		(	0.0	0.0	0.0	1.0	0.0	0.0	0.0	0.0	0.0	)
		(	0.0	0.0	0.0	1.0	0.0	0.0	0.0	0.0	0.0	))
		((	0.0	0.0	0.0	0.9	0.0	0.1	0.0	0.0	0.0	)
		(	0.0	0.0	0.0	0.8	0.0	0.2	0.0	0.0	0.0	)
		(	0.0	0.0	0.0	0.7	0.0	0.3	0.0	0.0	0.0	)
		(	0.0	0.0	0.0	0.6	0.0	0.4	0.0	0.0	0.0	)
		(	0.0	0.0	0.0	0.5	0.0	0.5	0.0	0.0	0.0	)
		(	0.0	0.0	0.0	0.4	0.0	0.6	0.0	0.0	0.0	)
		(	0.0	0.0	0.0	0.3	0.0	0.7	0.0	0.0	0.0	)
		(	0.0	0.0	0.0	0.2	0.0	0.8	0.0	0.0	0.0	)
		(	0.0	0.0	0.0	0.1	0.0	0.9	0.0	0.0	0.0	))
		((	0.0	0.0	0.0	0.0	0.0	1.0	0.0	0.0	0.0	)
		(	0.0	0.0	0.0	0.0	0.0	1.0	0.0	0.0	0.0	)
		(	0.0	0.0	0.0	0.0	0.0	1.0	0.0	0.0	0.0	)
		(	0.0	0.0	0.0	0.0	0.0	1.0	0.0	0.0	0.0	)
		(	0.0	0.0	0.0	0.0	0.0	1.0	0.0	0.0	0.0	)
		(	0.0	0.0	0.0	0.0	0.0	1.0	0.0	0.0	0.0	)
		(	0.0	0.0	0.0	0.0	0.0	1.0	0.0	0.0	0.0	)
		(	0.0	0.0	0.0	0.0	0.0	1.0	0.0	0.0	0.0	)
		(	0.0	0.0	0.0	0.0	0.0	1.0	0.0	0.0	0.0	))
		((	0.0	0.0	0.0	0.0	0.0	0.9	0.0	0.1	0.0	)
		(	0.0	0.0	0.0	0.0	0.0	0.8	0.0	0.2	0.0	)
		(	0.0	0.0	0.0	0.0	0.0	0.7	0.0	0.3	0.0	)
		(	0.0	0.0	0.0	0.0	0.0	0.6	0.0	0.4	0.0	)
		(	0.0	0.0	0.0	0.0	0.0	0.5	0.0	0.5	0.0	)
		(	0.0	0.0	0.0	0.0	0.0	0.4	0.0	0.6	0.0	)
		(	0.0	0.0	0.0	0.0	0.0	0.3	0.0	0.7	0.0	)
		(	0.0	0.0	0.0	0.0	0.0	0.2	0.0	0.8	0.0	)
		(	0.0	0.0	0.0	0.0	0.0	0.1	0.0	0.9	0.0	))
		((	0.0	0.0	0.0	0.0	0.0	0.0	0.0	1.0	0.0	)
		(	0.0	0.0	0.0	0.0	0.0	0.0	0.0	1.0	0.0	)
		(	0.0	0.0	0.0	0.0	0.0	0.0	0.0	1.0	0.0	)
		(	0.0	0.0	0.0	0.0	0.0	0.0	0.0	1.0	0.0	)
		(	0.0	0.0	0.0	0.0	0.0	0.0	0.0	1.0	0.0	)
		(	0.0	0.0	0.0	0.0	0.0	0.0	0.0	1.0	0.0	)
		(	0.0	0.0	0.0	0.0	0.0	0.0	0.0	1.0	0.0	)
		(	0.0	0.0	0.0	0.0	0.0	0.0	0.0	1.0	0.0	)
		(	0.0	0.0	0.0	0.0	0.0	0.0	0.0	1.0	0.0	))
		((	0.0	0.0	0.0	0.0	0.0	0.0	0.0	0.0	1.0	)
		(	0.0	0.0	0.0	0.0	0.0	0.0	0.0	0.0	1.0	)
		(	0.0	0.0	0.0	0.0	0.0	0.0	0.0	0.0	1.0	)
		(	0.0	0.0	0.0	0.0	0.0	0.0	0.0	0.0	1.0	)
		(	0.0	0.0	0.0	0.0	0.0	0.0	0.0	0.0	1.0	)
		(	0.0	0.0	0.0	0.0	0.0	0.0	0.0	0.0	1.0	)
		(	0.0	0.0	0.0	0.0	0.0	0.0	0.0	0.0	1.0	)
		(	0.0	0.0	0.0	0.0	0.0	0.0	0.0	0.0	1.0	)
		(	0.0	0.0	0.0	0.0	0.0	0.0	0.0	0.0	1.0	)));
}
